digraph Tree {
node [shape=box, style="filled, rounded", color="black", fontname="helvetica"] ;
edge [fontname="helvetica"] ;
0 [label=<Release_pre &le; 0.272<br/>squared_error = 0.986<br/>samples = 100.0%<br/>value = -0.017>, fillcolor="#f9e3d3"] ;
1 [label=<Release_roll7 &le; -0.657<br/>squared_error = 0.399<br/>samples = 66.2%<br/>value = -0.466>, fillcolor="#fcf1e8"] ;
0 -> 1 [labeldistance=2.5, labelangle=45, headlabel="True"] ;
2 [label=<Release_pre &le; -0.768<br/>squared_error = 0.182<br/>samples = 29.3%<br/>value = -0.806>, fillcolor="#fefbf9"] ;
1 -> 2 ;
3 [label=<squared_error = 0.131<br/>samples = 20.5%<br/>value = -0.927>, fillcolor="#ffffff"] ;
2 -> 3 ;
4 [label=<squared_error = 0.188<br/>samples = 8.8%<br/>value = -0.523>, fillcolor="#fcf2eb"] ;
2 -> 4 ;
5 [label=<Release_pre &le; -0.282<br/>squared_error = 0.406<br/>samples = 36.9%<br/>value = -0.196>, fillcolor="#fae8db"] ;
1 -> 5 ;
6 [label=<squared_error = 0.416<br/>samples = 20.0%<br/>value = -0.37>, fillcolor="#fbeee4"] ;
5 -> 6 ;
7 [label=<squared_error = 0.318<br/>samples = 16.9%<br/>value = 0.009>, fillcolor="#f9e2d1"] ;
5 -> 7 ;
8 [label=<Release_pre &le; 1.792<br/>squared_error = 0.967<br/>samples = 33.8%<br/>value = 0.863>, fillcolor="#f4c7a8"] ;
0 -> 8 [labeldistance=2.5, labelangle=-45, headlabel="False"] ;
9 [label=<Release_pre &le; 0.916<br/>squared_error = 0.499<br/>samples = 28.4%<br/>value = 0.616>, fillcolor="#f5cfb4"] ;
8 -> 9 ;
10 [label=<squared_error = 0.355<br/>samples = 17.5%<br/>value = 0.404>, fillcolor="#f6d6be"] ;
9 -> 10 ;
11 [label=<squared_error = 0.543<br/>samples = 10.9%<br/>value = 0.957>, fillcolor="#f3c4a3"] ;
9 -> 11 ;
12 [label=<Release_pre &le; 2.782<br/>squared_error = 1.408<br/>samples = 5.4%<br/>value = 2.172>, fillcolor="#eb9f67"] ;
8 -> 12 ;
13 [label=<squared_error = 0.828<br/>samples = 3.9%<br/>value = 1.812>, fillcolor="#edaa79"] ;
12 -> 13 ;
14 [label=<squared_error = 1.691<br/>samples = 1.5%<br/>value = 3.124>, fillcolor="#e58139"] ;
12 -> 14 ;
}