digraph Tree {
node [shape=box, style="filled, rounded", color="black", fontname="helvetica"] ;
edge [fontname="helvetica"] ;
rankdir=LR ;
0 [label="Flood Control <= 0.5\nsquared_error = 4.414\nsamples = 26\nvalue = 1.15", fillcolor="#fbeade"] ;
1 [label="max_sto <= 17.517\nsquared_error = 1.722\nsamples = 21\nvalue = 0.581", fillcolor="#fdf5ef"] ;
0 -> 1 [labeldistance=2.5, labelangle=-45, headlabel="True"] ;
2 [label="rts <= 111.379\nsquared_error = 6.209\nsamples = 4\nvalue = 1.986", fillcolor="#f7dac5"] ;
1 -> 2 ;
3 [label="rts <= 103.085\nsquared_error = 0.107\nsamples = 3\nvalue = 0.557", fillcolor="#fdf5f0"] ;
2 -> 3 ;
4 [label="rts <= 83.816\nsquared_error = 0.001\nsamples = 2\nvalue = 0.788", fillcolor="#fcf1e9"] ;
3 -> 4 ;
5 [label="squared_error = 0.0\nsamples = 1\nvalue = 0.751", fillcolor="#fcf2ea"] ;
4 -> 5 ;
6 [label="squared_error = 0.0\nsamples = 1\nvalue = 0.825", fillcolor="#fcf0e8"] ;
4 -> 6 ;
7 [label="squared_error = -0.0\nsamples = 1\nvalue = 0.096", fillcolor="#fffefd"] ;
3 -> 7 ;
8 [label="squared_error = 0.0\nsamples = 1\nvalue = 6.274", fillcolor="#e68844"] ;
2 -> 8 ;
9 [label="rts <= 103.338\nsquared_error = 0.093\nsamples = 17\nvalue = 0.25", fillcolor="#fefbf9"] ;
1 -> 9 ;
10 [label="rts <= 72.135\nsquared_error = 0.165\nsamples = 4\nvalue = 0.489", fillcolor="#fdf7f2"] ;
9 -> 10 ;
11 [label="max_sto <= 6760.049\nsquared_error = 0.004\nsamples = 2\nvalue = 0.117", fillcolor="#fffefd"] ;
10 -> 11 ;
12 [label="squared_error = 0.0\nsamples = 1\nvalue = 0.057", fillcolor="#ffffff"] ;
11 -> 12 ;
13 [label="squared_error = 0.0\nsamples = 1\nvalue = 0.176", fillcolor="#fefcfb"] ;
11 -> 13 ;
14 [label="Hydroelectric <= 0.5\nsquared_error = 0.049\nsamples = 2\nvalue = 0.861", fillcolor="#fcefe6"] ;
10 -> 14 ;
15 [label="squared_error = 0.0\nsamples = 1\nvalue = 1.082", fillcolor="#fbebe0"] ;
14 -> 15 ;
16 [label="squared_error = 0.0\nsamples = 1\nvalue = 0.641", fillcolor="#fdf4ed"] ;
14 -> 16 ;
17 [label="rts <= 1926.268\nsquared_error = 0.047\nsamples = 13\nvalue = 0.176", fillcolor="#fefcfb"] ;
9 -> 17 ;
18 [label="Irrigation <= 0.5\nsquared_error = 0.031\nsamples = 12\nvalue = 0.137", fillcolor="#fffdfc"] ;
17 -> 18 ;
19 [label="squared_error = 0.001\nsamples = 8\nvalue = 0.072", fillcolor="#fffefe"] ;
18 -> 19 ;
20 [label="squared_error = 0.066\nsamples = 4\nvalue = 0.267", fillcolor="#fefbf8"] ;
18 -> 20 ;
21 [label="squared_error = -0.0\nsamples = 1\nvalue = 0.649", fillcolor="#fdf3ed"] ;
17 -> 21 ;
22 [label="max_sto <= 79.755\nsquared_error = 8.647\nsamples = 5\nvalue = 3.54", fillcolor="#f1bc96"] ;
0 -> 22 [labeldistance=2.5, labelangle=45, headlabel="False"] ;
23 [label="squared_error = 0.0\nsamples = 1\nvalue = 0.044", fillcolor="#ffffff"] ;
22 -> 23 ;
24 [label="max_sto <= 2797.136\nsquared_error = 6.988\nsamples = 4\nvalue = 4.414", fillcolor="#eeac7c"] ;
22 -> 24 ;
25 [label="rts <= 767.502\nsquared_error = 0.841\nsamples = 3\nvalue = 5.87", fillcolor="#e89050"] ;
24 -> 25 ;
26 [label="rts <= 395.769\nsquared_error = 0.809\nsamples = 2\nvalue = 5.482", fillcolor="#ea975c"] ;
25 -> 26 ;
27 [label="squared_error = 0.0\nsamples = 1\nvalue = 6.381", fillcolor="#e68641"] ;
26 -> 27 ;
28 [label="squared_error = 0.0\nsamples = 1\nvalue = 4.582", fillcolor="#eda877"] ;
26 -> 28 ;
29 [label="squared_error = 0.0\nsamples = 1\nvalue = 6.646", fillcolor="#e58139"] ;
25 -> 29 ;
30 [label="squared_error = 0.0\nsamples = 1\nvalue = 0.047", fillcolor="#ffffff"] ;
24 -> 30 ;
}