digraph Tree {
node [shape=box, style="filled, rounded", color="black", fontname="helvetica"] ;
edge [fontname="helvetica"] ;
0 [label=<Release_pre &le; 0.272<br/>squared_error = 0.986<br/>samples = 100.0%<br/>value = -0.017>, fillcolor="#f9e3d3"] ;
1 [label=<Release_pre &le; -0.559<br/>squared_error = 0.399<br/>samples = 66.2%<br/>value = -0.466>, fillcolor="#fcf1e9"] ;
0 -> 1 [labeldistance=2.5, labelangle=45, headlabel="True"] ;
2 [label=<Release_pre &le; -0.957<br/>squared_error = 0.299<br/>samples = 38.5%<br/>value = -0.719>, fillcolor="#fef9f5"] ;
1 -> 2 ;
3 [label=<squared_error = 0.243<br/>samples = 15.4%<br/>value = -0.915>, fillcolor="#ffffff"] ;
2 -> 3 ;
4 [label=<squared_error = 0.294<br/>samples = 23.2%<br/>value = -0.59>, fillcolor="#fdf5ef"] ;
2 -> 4 ;
5 [label=<Release_pre &le; -0.167<br/>squared_error = 0.325<br/>samples = 27.7%<br/>value = -0.114>, fillcolor="#fae6d8"] ;
1 -> 5 ;
6 [label=<squared_error = 0.281<br/>samples = 13.3%<br/>value = -0.275>, fillcolor="#fbebe0"] ;
5 -> 6 ;
7 [label=<squared_error = 0.319<br/>samples = 14.4%<br/>value = 0.035>, fillcolor="#f9e1d0"] ;
5 -> 7 ;
8 [label=<Release_pre &le; 1.792<br/>squared_error = 0.967<br/>samples = 33.8%<br/>value = 0.863>, fillcolor="#f4c8a8"] ;
0 -> 8 [labeldistance=2.5, labelangle=-45, headlabel="False"] ;
9 [label=<Release_pre &le; 0.916<br/>squared_error = 0.499<br/>samples = 28.4%<br/>value = 0.616>, fillcolor="#f5cfb4"] ;
8 -> 9 ;
10 [label=<squared_error = 0.355<br/>samples = 17.5%<br/>value = 0.404>, fillcolor="#f7d6be"] ;
9 -> 10 ;
11 [label=<squared_error = 0.543<br/>samples = 10.9%<br/>value = 0.957>, fillcolor="#f3c5a3"] ;
9 -> 11 ;
12 [label=<Release_pre &le; 2.782<br/>squared_error = 1.408<br/>samples = 5.4%<br/>value = 2.172>, fillcolor="#eb9f68"] ;
8 -> 12 ;
13 [label=<squared_error = 0.828<br/>samples = 3.9%<br/>value = 1.812>, fillcolor="#edaa79"] ;
12 -> 13 ;
14 [label=<squared_error = 1.691<br/>samples = 1.5%<br/>value = 3.124>, fillcolor="#e58139"] ;
12 -> 14 ;
}