digraph Tree {
node [shape=box, style="filled, rounded", color="black", fontname="helvetica"] ;
edge [fontname="helvetica"] ;
rankdir=LR ;
0 [label="Flood Control <= 0.5\nsquared_error = 4.414\nsamples = 26\nvalue = 1.15", fillcolor="#fbe9dd"] ;
1 [label="max_sto <= 17.517\nsquared_error = 1.722\nsamples = 21\nvalue = 0.581", fillcolor="#fdf4ee"] ;
0 -> 1 [labeldistance=2.5, labelangle=-45, headlabel="True"] ;
2 [label="rts <= 111.379\nsquared_error = 6.209\nsamples = 4\nvalue = 1.986", fillcolor="#f7dac4"] ;
1 -> 2 ;
3 [label="rts <= 103.085\nsquared_error = 0.107\nsamples = 3\nvalue = 0.557", fillcolor="#fdf5ef"] ;
2 -> 3 ;
4 [label="rts <= 83.816\nsquared_error = 0.001\nsamples = 2\nvalue = 0.788", fillcolor="#fcf0e8"] ;
3 -> 4 ;
5 [label="squared_error = 0.0\nsamples = 1\nvalue = 0.751", fillcolor="#fcf1e9"] ;
4 -> 5 ;
6 [label="squared_error = 0.0\nsamples = 1\nvalue = 0.825", fillcolor="#fcf0e7"] ;
4 -> 6 ;
7 [label="squared_error = -0.0\nsamples = 1\nvalue = 0.096", fillcolor="#fffdfd"] ;
3 -> 7 ;
8 [label="squared_error = 0.0\nsamples = 1\nvalue = 6.274", fillcolor="#e68844"] ;
2 -> 8 ;
9 [label="rts <= 103.338\nsquared_error = 0.093\nsamples = 17\nvalue = 0.25", fillcolor="#fefbf8"] ;
1 -> 9 ;
10 [label="rts <= 72.135\nsquared_error = 0.165\nsamples = 4\nvalue = 0.489", fillcolor="#fdf6f1"] ;
9 -> 10 ;
11 [label="max_sto <= 6760.049\nsquared_error = 0.004\nsamples = 2\nvalue = 0.117", fillcolor="#fffdfc"] ;
10 -> 11 ;
12 [label="squared_error = 0.0\nsamples = 1\nvalue = 0.057", fillcolor="#fffefe"] ;
11 -> 12 ;
13 [label="squared_error = 0.0\nsamples = 1\nvalue = 0.176", fillcolor="#fefcfa"] ;
11 -> 13 ;
14 [label="Hydroelectric <= 0.5\nsquared_error = 0.049\nsamples = 2\nvalue = 0.861", fillcolor="#fcefe6"] ;
10 -> 14 ;
15 [label="squared_error = 0.0\nsamples = 1\nvalue = 1.082", fillcolor="#fbebdf"] ;
14 -> 15 ;
16 [label="squared_error = 0.0\nsamples = 1\nvalue = 0.641", fillcolor="#fdf3ec"] ;
14 -> 16 ;
17 [label="rts <= 1926.268\nsquared_error = 0.047\nsamples = 13\nvalue = 0.176", fillcolor="#fefcfa"] ;
9 -> 17 ;
18 [label="Irrigation <= 0.5\nsquared_error = 0.031\nsamples = 12\nvalue = 0.137", fillcolor="#fffdfb"] ;
17 -> 18 ;
19 [label="rts <= 125.673\nsquared_error = 0.001\nsamples = 8\nvalue = 0.072", fillcolor="#fffefd"] ;
18 -> 19 ;
20 [label="squared_error = 0.0\nsamples = 1\nvalue = 0.013", fillcolor="#ffffff"] ;
19 -> 20 ;
21 [label="squared_error = 0.001\nsamples = 7\nvalue = 0.08", fillcolor="#fffefd"] ;
19 -> 21 ;
22 [label="rts <= 494.975\nsquared_error = 0.066\nsamples = 4\nvalue = 0.267", fillcolor="#fefaf7"] ;
18 -> 22 ;
23 [label="squared_error = 0.074\nsamples = 2\nvalue = 0.427", fillcolor="#fdf7f3"] ;
22 -> 23 ;
24 [label="squared_error = 0.007\nsamples = 2\nvalue = 0.108", fillcolor="#fffdfc"] ;
22 -> 24 ;
25 [label="squared_error = -0.0\nsamples = 1\nvalue = 0.649", fillcolor="#fdf3ec"] ;
17 -> 25 ;
26 [label="max_sto <= 79.755\nsquared_error = 8.647\nsamples = 5\nvalue = 3.54", fillcolor="#f1bc96"] ;
0 -> 26 [labeldistance=2.5, labelangle=45, headlabel="False"] ;
27 [label="squared_error = 0.0\nsamples = 1\nvalue = 0.044", fillcolor="#fffefe"] ;
26 -> 27 ;
28 [label="rts <= 1255.99\nsquared_error = 6.988\nsamples = 4\nvalue = 4.414", fillcolor="#eeab7c"] ;
26 -> 28 ;
29 [label="rts <= 767.502\nsquared_error = 0.841\nsamples = 3\nvalue = 5.87", fillcolor="#e89050"] ;
28 -> 29 ;
30 [label="rts <= 395.769\nsquared_error = 0.809\nsamples = 2\nvalue = 5.482", fillcolor="#ea975c"] ;
29 -> 30 ;
31 [label="squared_error = 0.0\nsamples = 1\nvalue = 6.381", fillcolor="#e68641"] ;
30 -> 31 ;
32 [label="squared_error = 0.0\nsamples = 1\nvalue = 4.582", fillcolor="#eda877"] ;
30 -> 32 ;
33 [label="squared_error = 0.0\nsamples = 1\nvalue = 6.646", fillcolor="#e58139"] ;
29 -> 33 ;
34 [label="squared_error = 0.0\nsamples = 1\nvalue = 0.047", fillcolor="#fffefe"] ;
28 -> 34 ;
}