digraph Tree {
node [shape=box, style="filled, rounded", color="black", fontname="helvetica"] ;
edge [fontname="helvetica"] ;
rankdir=LR ;
0 [label="rts <= 833.437\nsquared_error = 1.0\nsamples = 100.0%\nvalue = -0.0", fillcolor="#e89051"] ;
1 [label="Hydroelectric <= 0.5\nsquared_error = 1.0\nsamples = 75.2%\nvalue = 0.0", fillcolor="#e78a46"] ;
0 -> 1 [labeldistance=2.5, labelangle=-45, headlabel="True"] ;
2 [label="Fish and Wildlife Pond <= 0.5\nsquared_error = 1.0\nsamples = 49.4%\nvalue = 0.0", fillcolor="#e78b49"] ;
1 -> 2 ;
3 [label="max_sto <= 573.872\nsquared_error = 1.0\nsamples = 33.3%\nvalue = 0.0", fillcolor="#e78945"] ;
2 -> 3 ;
4 [label="squared_error = 1.0\nsamples = 23.8%\nvalue = 0.0", fillcolor="#e78c4b"] ;
3 -> 4 ;
5 [label="squared_error = 1.0\nsamples = 9.5%\nvalue = 0.0", fillcolor="#e58139"] ;
3 -> 5 ;
6 [label="rts <= 143.696\nsquared_error = 1.0\nsamples = 16.1%\nvalue = -0.0", fillcolor="#e99355"] ;
2 -> 6 ;
7 [label="squared_error = 1.0\nsamples = 4.9%\nvalue = -0.0", fillcolor="#ea975c"] ;
6 -> 7 ;
8 [label="squared_error = 1.0\nsamples = 11.2%\nvalue = 0.0", fillcolor="#e78c4b"] ;
6 -> 8 ;
9 [label="max_sto <= 112.03\nsquared_error = 1.0\nsamples = 25.8%\nvalue = 0.0", fillcolor="#e6843d"] ;
1 -> 9 ;
10 [label="Multipurpose <= 0.5\nsquared_error = 1.0\nsamples = 9.2%\nvalue = 0.0", fillcolor="#e68844"] ;
9 -> 10 ;
11 [label="squared_error = 1.0\nsamples = 5.6%\nvalue = 0.0", fillcolor="#e78946"] ;
10 -> 11 ;
12 [label="squared_error = 1.0\nsamples = 3.6%\nvalue = 0.0", fillcolor="#e68640"] ;
10 -> 12 ;
13 [label="squared_error = 1.0\nsamples = 16.7%\nvalue = 0.0", fillcolor="#e58139"] ;
9 -> 13 ;
14 [label="Multipurpose <= 0.5\nsquared_error = 1.0\nsamples = 24.8%\nvalue = -0.0", fillcolor="#eeab7b"] ;
0 -> 14 [labeldistance=2.5, labelangle=45, headlabel="False"] ;
15 [label="squared_error = 1.0\nsamples = 4.3%\nvalue = -0.0", fillcolor="#ffffff"] ;
14 -> 15 ;
16 [label="rts <= 1281.06\nsquared_error = 1.0\nsamples = 20.5%\nvalue = -0.0", fillcolor="#ea995f"] ;
14 -> 16 ;
17 [label="rts <= 1054.719\nsquared_error = 1.0\nsamples = 13.6%\nvalue = -0.0", fillcolor="#eca26c"] ;
16 -> 17 ;
18 [label="squared_error = 1.0\nsamples = 3.2%\nvalue = -0.0", fillcolor="#eda978"] ;
17 -> 18 ;
19 [label="squared_error = 1.0\nsamples = 10.5%\nvalue = -0.0", fillcolor="#eba06a"] ;
17 -> 19 ;
20 [label="Flood Control <= 0.5\nsquared_error = 1.0\nsamples = 6.9%\nvalue = 0.0", fillcolor="#e68742"] ;
16 -> 20 ;
21 [label="squared_error = 0.999\nsamples = 0.9%\nvalue = -0.0", fillcolor="#e89151"] ;
20 -> 21 ;
22 [label="squared_error = 1.0\nsamples = 6.0%\nvalue = 0.0", fillcolor="#e6843e"] ;
20 -> 22 ;
}