digraph Tree {
node [shape=box, style="filled, rounded", color="black", fontname=helvetica] ;
edge [fontname=helvetica] ;
0 [label=<Release_pre &le; 0.478<br/>mse = 0.982<br/>samples = 100.0%<br/>value = -0.023>, fillcolor="#fbe9dd"] ;
1 [label=<Release_pre &le; -0.384<br/>mse = 0.345<br/>samples = 75.8%<br/>value = -0.393>, fillcolor="#fcf3eb"] ;
0 -> 1 [labeldistance=2.5, labelangle=45, headlabel="True"] ;
2 [label=<Release_roll7 &le; -0.814<br/>mse = 0.226<br/>samples = 43.5%<br/>value = -0.671>, fillcolor="#fef9f6"] ;
1 -> 2 ;
3 [label=<mse = 0.115<br/>samples = 18.9%<br/>value = -0.892>, fillcolor="#ffffff"] ;
2 -> 3 ;
4 [label=<mse = 0.245<br/>samples = 24.6%<br/>value = -0.501>, fillcolor="#fdf5f0"] ;
2 -> 4 ;
5 [label=<Net Inflow &le; 0.048<br/>mse = 0.261<br/>samples = 32.3%<br/>value = -0.019>, fillcolor="#fae9dd"] ;
1 -> 5 ;
6 [label=<mse = 0.188<br/>samples = 21.3%<br/>value = -0.176>, fillcolor="#fbede3"] ;
5 -> 6 ;
7 [label=<mse = 0.265<br/>samples = 11.0%<br/>value = 0.284>, fillcolor="#f9e2d1"] ;
5 -> 7 ;
8 [label=<Release_pre &le; 2.047<br/>mse = 1.204<br/>samples = 24.2%<br/>value = 1.136>, fillcolor="#f5ccaf"] ;
0 -> 8 [labeldistance=2.5, labelangle=-45, headlabel="False"] ;
9 [label=<Net Inflow &le; 1.068<br/>mse = 0.522<br/>samples = 20.0%<br/>value = 0.815>, fillcolor="#f6d4bc"] ;
8 -> 9 ;
10 [label=<mse = 0.374<br/>samples = 15.9%<br/>value = 0.649>, fillcolor="#f7d8c2"] ;
9 -> 10 ;
11 [label=<mse = 0.569<br/>samples = 4.1%<br/>value = 1.463>, fillcolor="#f3c4a2"] ;
9 -> 11 ;
12 [label=<Release_pre &le; 3.586<br/>mse = 1.622<br/>samples = 4.2%<br/>value = 2.662>, fillcolor="#eda673"] ;
8 -> 12 ;
13 [label=<mse = 0.927<br/>samples = 3.4%<br/>value = 2.308>, fillcolor="#eeaf81"] ;
12 -> 13 ;
14 [label=<mse = 1.795<br/>samples = 0.8%<br/>value = 4.148>, fillcolor="#e58139"] ;
12 -> 14 ;
}