digraph Tree {
node [shape=box, style="filled, rounded", color="black", fontname="helvetica"] ;
edge [fontname="helvetica"] ;
rankdir=LR ;
0 [label="max_sto <= 1940.32\nsquared_error = 7.324\nsamples = 100.0%\nvalue = 1.645", fillcolor="#f9e0cf"] ;
1 [label="max_sto <= 342.521\nsquared_error = 0.256\nsamples = 72.9%\nvalue = 0.377", fillcolor="#fef9f5"] ;
0 -> 1 [labeldistance=2.5, labelangle=-45, headlabel="True"] ;
2 [label="rts <= 84.181\nsquared_error = 0.16\nsamples = 53.3%\nvalue = 0.272", fillcolor="#fefbf8"] ;
1 -> 2 ;
3 [label="Irrigation <= 0.5\nsquared_error = 0.271\nsamples = 15.7%\nvalue = 0.674", fillcolor="#fdf3ec"] ;
2 -> 3 ;
4 [label="squared_error = 0.261\nsamples = 14.7%\nvalue = 0.718", fillcolor="#fcf2eb"] ;
3 -> 4 ;
5 [label="squared_error = 0.009\nsamples = 1.0%\nvalue = 0.057", fillcolor="#ffffff"] ;
3 -> 5 ;
6 [label="max_sto <= 118.037\nsquared_error = 0.017\nsamples = 37.6%\nvalue = 0.104", fillcolor="#fffefd"] ;
2 -> 6 ;
7 [label="squared_error = 0.008\nsamples = 26.0%\nvalue = 0.076", fillcolor="#fffefe"] ;
6 -> 7 ;
8 [label="squared_error = 0.031\nsamples = 11.5%\nvalue = 0.168", fillcolor="#fffdfb"] ;
6 -> 8 ;
9 [label="rts <= 1901.198\nsquared_error = 0.407\nsamples = 19.6%\nvalue = 0.663", fillcolor="#fdf3ed"] ;
1 -> 9 ;
10 [label="rts <= 275.122\nsquared_error = 0.406\nsamples = 18.7%\nvalue = 0.693", fillcolor="#fcf3ec"] ;
9 -> 10 ;
11 [label="squared_error = 0.807\nsamples = 4.9%\nvalue = 0.825", fillcolor="#fcf0e8"] ;
10 -> 11 ;
12 [label="squared_error = 0.256\nsamples = 13.8%\nvalue = 0.647", fillcolor="#fdf4ed"] ;
10 -> 12 ;
13 [label="squared_error = 0.017\nsamples = 0.9%\nvalue = 0.047", fillcolor="#ffffff"] ;
9 -> 13 ;
14 [label="Flood Control <= 0.5\nsquared_error = 10.397\nsamples = 27.1%\nvalue = 5.05", fillcolor="#eb9f69"] ;
0 -> 14 [labeldistance=2.5, labelangle=45, headlabel="False"] ;
15 [label="rts <= 97.762\nsquared_error = 7.501\nsamples = 21.1%\nvalue = 6.173", fillcolor="#e78a47"] ;
14 -> 15 ;
16 [label="squared_error = 2.544\nsamples = 3.8%\nvalue = 4.582", fillcolor="#eda877"] ;
15 -> 16 ;
17 [label="max_sto <= 20962.1\nsquared_error = 7.909\nsamples = 17.4%\nvalue = 6.517", fillcolor="#e6833d"] ;
15 -> 17 ;
18 [label="squared_error = 3.889\nsamples = 6.9%\nvalue = 6.323", fillcolor="#e68743"] ;
17 -> 18 ;
19 [label="squared_error = 10.525\nsamples = 10.5%\nvalue = 6.646", fillcolor="#e58139"] ;
17 -> 19 ;
20 [label="squared_error = 0.433\nsamples = 6.0%\nvalue = 1.082", fillcolor="#fbebe0"] ;
14 -> 20 ;
}